37 100
pa 0.000501 0.034882 0.163133 0.047030 -0.032366 0.126512 -0.139434 0.004968 -0.148317 -0.041248 -0.107428 0.188771 0.064308 0.184904 0.024738 0.052895 -0.014026 -0.276473 -0.083265 0.069597 -0.204670 -0.051589 -0.030511 0.157757 0.266142 -0.066577 -0.042865 0.088300 -0.117160 -0.009583 0.009667 0.009373 -0.170623 0.073363 0.067924 -0.044737 0.195578 -0.308123 -0.175637 0.113419 0.070577 -0.037639 0.104203 -0.130780 -0.023905 -0.031093 0.044218 0.221174 0.284320 -0.161969 0.087600 -0.210518 -0.113475 -0.015970 0.148054 -0.046935 -0.022684 0.078492 0.020434 0.060599 0.280391 0.112352 -0.257127 0.186503 0.128784 -0.010097 0.028106 0.022237 -0.108769 -0.144195 0.057700 -0.159044 -0.050989 -0.072248 0.155179 -0.056068 0.091863 -0.107265 -0.060008 -0.037221 0.136697 -0.024986 -0.163295 0.210891 -0.105934 0.100634 -0.228555 -0.176827 0.049533 -0.050195 0.103056 0.114556 0.262325 0.022385 0.103603 -0.077268 0.044802 0.066748 -0.130532 -0.145042
na 0.017272 0.021835 0.169531 0.038655 -0.023207 0.126833 -0.128053 0.003301 -0.145733 -0.027626 -0.116508 0.189256 0.061644 0.183588 0.020947 0.049363 -0.025170 -0.283557 -0.096806 0.064364 -0.210241 -0.044691 -0.021118 0.151451 0.273191 -0.069137 -0.049829 0.092298 -0.120651 -0.005750 0.011712 0.016425 -0.174338 0.074753 0.069362 -0.041217 0.194167 -0.333664 -0.178423 0.111915 0.088684 -0.048553 0.099377 -0.132079 -0.006859 -0.032475 0.036098 0.212729 0.295367 -0.179807 0.091041 -0.212831 -0.104471 -0.019508 0.149805 -0.036145 -0.032177 0.088031 0.016866 0.064415 0.289840 0.113884 -0.263820 0.180101 0.132678 0.000945 0.016940 0.020228 -0.105553 -0.157039 0.042635 -0.165008 -0.045968 -0.061165 0.159892 -0.056972 0.101224 -0.111509 -0.055695 -0.042246 0.140269 -0.033455 -0.160849 0.214763 -0.110748 0.098011 -0.232177 -0.180180 0.037684 -0.062726 0.111193 0.114048 0.264332 0.020707 0.107823 -0.082566 0.048299 0.057227 -0.138765 -0.132441
la 0.006531 0.035853 0.153996 0.051793 -0.030324 0.111043 -0.122536 0.009469 -0.141276 -0.027453 -0.109240 0.177656 0.062957 0.173001 0.024259 0.041732 -0.021071 -0.269954 -0.089137 0.076957 -0.206530 -0.048254 -0.019292 0.138980 0.258666 -0.071904 -0.031628 0.081097 -0.114012 -0.015618 0.009431 0.021755 -0.166545 0.075368 0.057795 -0.029976 0.186719 -0.308649 -0.170884 0.111938 0.069272 -0.039563 0.089464 -0.120510 -0.013090 -0.048712 0.049170 0.206102 0.281086 -0.172525 0.073621 -0.198026 -0.113511 -0.017157 0.146494 -0.042431 -0.020327 0.075908 0.008375 0.055993 0.270138 0.097444 -0.252100 0.180853 0.136900 -0.004398 0.017641 0.022874 -0.095345 -0.136873 0.046084 -0.157381 -0.056620 -0.054721 0.145694 -0.053996 0.092065 -0.094817 -0.069171 -0.049419 0.119689 -0.022776 -0.148158 0.199018 -0.107428 0.103035 -0.222161 -0.165688 0.043887 -0.056857 0.108775 0.100388 0.258356 0.021212 0.092753 -0.069903 0.056611 0.060219 -0.133965 -0.143810
ka 0.007185 0.034535 0.146329 0.054212 -0.028489 0.109115 -0.131941 0.003850 -0.142253 -0.040710 -0.102191 0.178771 0.051502 0.170313 0.014472 0.049575 -0.008788 -0.259409 -0.078687 0.073460 -0.202878 -0.055126 -0.022078 0.155007 0.265148 -0.072704 -0.044444 0.072479 -0.123262 -0.007117 0.012052 0.012036 -0.161934 0.076400 0.058741 -0.029889 0.193571 -0.311741 -0.174479 0.118337 0.079050 -0.045274 0.099844 -0.123849 -0.005882 -0.043017 0.054910 0.217702 0.269076 -0.170945 0.081070 -0.208400 -0.112063 -0.016401 0.153342 -0.027572 -0.030519 0.091264 0.005683 0.061479 0.272683 0.111990 -0.254783 0.180626 0.119046 -0.006733 0.017876 0.021042 -0.108558 -0.133562 0.046558 -0.146864 -0.050736 -0.065773 0.156256 -0.061882 0.097761 -0.095643 -0.062444 -0.045521 0.114546 -0.015603 -0.143634 0.195261 -0.115931 0.086479 -0.225280 -0.162316 0.051512 -0.062941 0.107595 0.099453 0.247644 0.025381 0.098050 -0.063668 0.039686 0.055694 -0.134463 -0.138514
ta 0.020608 0.032924 0.152767 0.056614 -0.028990 0.116161 -0.130237 -0.006011 -0.129471 -0.040200 -0.112870 0.169838 0.054187 0.168338 0.010599 0.049295 -0.004906 -0.271880 -0.092415 0.068586 -0.192325 -0.042495 -0.018484 0.148156 0.255012 -0.073529 -0.031823 0.088196 -0.125531 -0.004731 0.002868 0.020312 -0.151143 0.063015 0.057683 -0.042690 0.186219 -0.301942 -0.177050 0.108009 0.086113 -0.045014 0.091840 -0.124075 -0.014453 -0.035795 0.041030 0.217948 0.277611 -0.168537 0.089005 -0.191224 -0.108610 -0.023480 0.146070 -0.035379 -0.031245 0.086019 0.020395 0.047973 0.270577 0.097909 -0.245055 0.171497 0.118074 0.002615 0.010946 0.028106 -0.104412 -0.131934 0.054276 -0.144200 -0.050999 -0.063947 0.152269 -0.047690 0.100492 -0.109966 -0.058094 -0.048856 0.120922 -0.017448 -0.157704 0.207532 -0.107639 0.088834 -0.220339 -0.168706 0.046714 -0.054298 0.111323 0.113151 0.257063 0.026293 0.088763 -0.072376 0.042725 0.059748 -0.122524 -0.137685
sa 0.000178 0.029880 0.155829 0.051477 -0.032351 0.109049 -0.119576 -0.004808 -0.134720 -0.036489 -0.088136 0.169184 0.062510 0.171535 0.027876 0.034967 -0.004374 -0.256397 -0.083807 0.067503 -0.190148 -0.051617 -0.028392 0.143365 0.235525 -0.068158 -0.027642 0.067614 -0.100022 -0.000105 0.011751 0.007052 -0.155665 0.061925 0.056566 -0.039819 0.171089 -0.296613 -0.156651 0.092157 0.075609 -0.048311 0.084964 -0.124297 -0.007592 -0.046641 0.040124 0.197779 0.258976 -0.149981 0.082356 -0.188622 -0.095149 -0.017619 0.145680 -0.035338 -0.016383 0.086401 0.020911 0.059134 0.249405 0.088880 -0.234332 0.156760 0.127673 -0.011284 0.012552 0.018257 -0.088393 -0.129610 0.056740 -0.141012 -0.050617 -0.069236 0.128720 -0.052325 0.096383 -0.093834 -0.048175 -0.045197 0.108624 -0.015446 -0.152080 0.177947 -0.101742 0.097604 -0.198520 -0.167458 0.048137 -0.045160 0.102378 0.108343 0.229191 0.032628 0.083776 -0.061030 0.047819 0.063519 -0.119950 -0.123486
ra 0.011645 0.032659 0.159206 0.038145 -0.022472 0.114522 -0.130615 0.002145 -0.127794 -0.023950 -0.097648 0.171954 0.064117 0.171055 0.023619 0.048657 -0.018323 -0.265006 -0.095695 0.060621 -0.199313 -0.046758 -0.030426 0.142395 0.253995 -0.071236 -0.041926 0.077759 -0.114792 -0.011059 0.015965 0.011990 -0.156816 0.067291 0.051601 -0.031200 0.176071 -0.309687 -0.159896 0.116841 0.078854 -0.031881 0.105321 -0.122838 -0.009252 -0.041912 0.044102 0.207095 0.281938 -0.154024 0.078752 -0.193739 -0.113334 -0.007780 0.143849 -0.036075 -0.017671 0.085413 0.004791 0.050697 0.255485 0.107874 -0.255737 0.164298 0.128475 -0.002577 0.018061 0.032614 -0.088280 -0.145907 0.058896 -0.144997 -0.046090 -0.070953 0.149796 -0.048611 0.092849 -0.107402 -0.059641 -0.031401 0.127489 -0.031121 -0.141781 0.207769 -0.111707 0.098771 -0.215887 -0.165337 0.040474 -0.049119 0.110445 0.110454 0.256104 0.032211 0.083261 -0.074888 0.053930 0.063656 -0.137873 -0.141927
ma 0.010125 0.029863 0.151189 0.040132 -0.036681 0.118462 -0.139211 0.002586 -0.139617 -0.032102 -0.102891 0.176928 0.063873 0.182128 0.028821 0.052709 -0.013925 -0.266035 -0.094639 0.070538 -0.208848 -0.038946 -0.017852 0.139766 0.263013 -0.075397 -0.035256 0.073936 -0.116894 -0.005454 0.015859 0.013702 -0.150444 0.075901 0.053674 -0.031967 0.190059 -0.314953 -0.164298 0.118190 0.082752 -0.035523 0.102457 -0.129653 -0.009274 -0.041567 0.045666 0.206288 0.274846 -0.171496 0.089658 -0.207470 -0.117079 -0.005671 0.146260 -0.038383 -0.019184 0.081702 0.006992 0.060472 0.260994 0.106675 -0.242394 0.182607 0.126183 -0.000729 0.021209 0.025725 -0.106038 -0.143826 0.053389 -0.141265 -0.059081 -0.059775 0.156631 -0.045400 0.091790 -0.108704 -0.065355 -0.033352 0.133823 -0.021913 -0.161335 0.195941 -0.107481 0.096802 -0.226922 -0.166587 0.043495 -0.065492 0.095096 0.106023 0.257627 0.030477 0.092073 -0.075884 0.059593 0.062103 -0.134915 -0.138090
nan -0.000837 0.022076 0.159090 0.055072 -0.024339 0.122641 -0.130108 -0.010636 -0.144114 -0.018382 -0.118430 0.186583 0.060125 0.176595 0.027185 0.052576 -0.026893 -0.275242 -0.086771 0.080344 -0.214693 -0.043352 -0.028008 0.148610 0.259514 -0.077151 -0.037082 0.091510 -0.109808 -0.017672 0.003092 0.008873 -0.163837 0.067080 0.067887 -0.029700 0.191926 -0.322695 -0.176993 0.117614 0.072060 -0.039552 0.111390 -0.136553 -0.028244 -0.050569 0.034260 0.201643 0.287588 -0.163561 0.090872 -0.197421 -0.101499 -0.018047 0.142420 -0.030535 -0.028438 0.075744 0.021041 0.061692 0.283188 0.118173 -0.263476 0.183585 0.140629 -0.000281 0.027389 0.033403 -0.097704 -0.156038 0.048613 -0.157247 -0.058236 -0.072001 0.155246 -0.055735 0.095152 -0.097488 -0.062127 -0.037691 0.122515 -0.018352 -0.158482 0.197624 -0.101101 0.103395 -0.226465 -0.178722 0.029112 -0.062360 0.096219 0.112123 0.254586 0.033363 0.100162 -0.070613 0.052249 0.055402 -0.141411 -0.134647
ku 0.000107 0.017874 0.147071 0.054514 -0.029432 0.118655 -0.127709 -0.005716 -0.138308 -0.039866 -0.097651 0.165936 0.054351 0.182107 0.021168 0.044470 -0.012313 -0.252485 -0.090677 0.070139 -0.188960 -0.045326 -0.023870 0.137071 0.246091 -0.057221 -0.037851 0.075323 -0.115215 -0.007405 0.012123 0.017993 -0.160016 0.072607 0.056860 -0.025280 0.174277 -0.310823 -0.166060 0.107586 0.078720 -0.042312 0.104593 -0.122480 -0.021723 -0.045378 0.053415 0.197655 0.279446 -0.165003 0.071112 -0.200358 -0.103904 -0.014899 0.147828 -0.033599 -0.025430 0.084985 0.023197 0.053261 0.253863 0.101869 -0.238578 0.164735 0.133206 -0.005052 0.020568 0.021077 -0.088825 -0.147077 0.044905 -0.148284 -0.049069 -0.063391 0.139867 -0.058091 0.083796 -0.097190 -0.062383 -0.038469 0.124548 -0.018579 -0.148765 0.199303 -0.103288 0.095283 -0.210185 -0.169127 0.036852 -0.049461 0.097450 0.104809 0.240010 0.021629 0.092479 -0.066724 0.048794 0.057724 -0.119203 -0.132517
dh 0.014383 0.029762 0.144646 0.051559 -0.035057 0.115083 -0.112119 -0.000140 -0.124451 -0.028725 -0.102785 0.169377 0.047805 0.159496 0.019398 0.049364 -0.015797 -0.243808 -0.090489 0.056591 -0.194225 -0.052202 -0.014182 0.142208 0.242235 -0.072080 -0.044529 0.070586 -0.105685 -0.010593 0.009316 0.006075 -0.142169 0.061880 0.045840 -0.027294 0.178794 -0.296688 -0.156349 0.108129 0.073880 -0.031327 0.090301 -0.118421 -0.010128 -0.044402 0.035558 0.195190 0.258209 -0.159994 0.074949 -0.187984 -0.100514 -0.004290 0.126215 -0.023780 -0.022275 0.083088 0.012100 0.048212 0.252492 0.101843 -0.239209 0.165350 0.124271 -0.008041 0.026568 0.026431 -0.094160 -0.140284 0.049470 -0.143547 -0.040985 -0.059094 0.137087 -0.057910 0.090727 -0.099308 -0.058258 -0.030989 0.123641 -0.011621 -0.132990 0.185755 -0.104479 0.095276 -0.193775 -0.146929 0.041478 -0.059194 0.094692 0.096421 0.238075 0.020310 0.083057 -0.073752 0.052712 0.063109 -0.130083 -0.126566
ba 0.008621 0.026888 0.159428 0.039071 -0.033208 0.106578 -0.130469 0.009446 -0.126002 -0.041221 -0.100345 0.165492 0.050103 0.166768 0.013338 0.045411 -0.003455 -0.254461 -0.080878 0.066917 -0.204706 -0.054472 -0.028318 0.137367 0.256558 -0.059050 -0.031697 0.081340 -0.111735 -0.005313 0.008924 0.017176 -0.148650 0.073999 0.059311 -0.042942 0.184952 -0.304278 -0.158788 0.108816 0.082211 -0.043469 0.105639 -0.114070 -0.018154 -0.039638 0.044482 0.209197 0.272820 -0.153048 0.075407 -0.195449 -0.107179 -0.005595 0.137409 -0.033167 -0.030653 0.088890 0.011133 0.051268 0.260945 0.102971 -0.236433 0.169628 0.124779 -0.014532 0.008994 0.022402 -0.085264 -0.128448 0.051475 -0.143103 -0.050491 -0.069139 0.134914 -0.056596 0.086716 -0.103893 -0.064344 -0.049347 0.123662 -0.013269 -0.143658 0.193425 -0.105531 0.088222 -0.219159 -0.162682 0.042245 -0.064890 0.097763 0.097852 0.237050 0.027901 0.091682 -0.066045 0.052215 0.070282 -0.121226 -0.129469
ch 0.018213 0.026426 0.166066 0.052757 -0.025563 0.123901 -0.127566 0.004255 -0.143003 -0.020904 -0.104117 0.180567 0.057330 0.183271 0.012241 0.037043 -0.014379 -0.258221 -0.081669 0.068201 -0.198003 -0.045024 -0.013976 0.149832 0.253276 -0.057945 -0.046762 0.091742 -0.122154 -0.014015 0.017710 0.020563 -0.148992 0.075337 0.061750 -0.036886 0.174627 -0.316911 -0.172440 0.099772 0.076482 -0.035151 0.108679 -0.124470 -0.007101 -0.030183 0.051473 0.206654 0.272319 -0.153882 0.074595 -0.201055 -0.115936 -0.008878 0.147033 -0.044575 -0.029782 0.083892 0.015006 0.061652 0.261453 0.113592 -0.250151 0.178527 0.123184 -0.015620 0.009029 0.022981 -0.088519 -0.150428 0.046307 -0.156761 -0.040986 -0.059813 0.154732 -0.048663 0.096727 -0.093743 -0.069628 -0.032962 0.128519 -0.019461 -0.154380 0.205486 -0.108989 0.085284 -0.207467 -0.174397 0.032757 -0.053676 0.096026 0.113056 0.249070 0.014427 0.101530 -0.069468 0.045485 0.064971 -0.130439 -0.144665
bh 0.014208 0.022745 0.145474 0.050666 -0.024364 0.108184 -0.122001 -0.005181 -0.127744 -0.021376 -0.096644 0.156072 0.057878 0.166469 0.025773 0.037463 -0.008738 -0.237796 -0.081119 0.060888 -0.189992 -0.046635 -0.019630 0.140300 0.239173 -0.067820 -0.031773 0.066382 -0.102248 -0.011000 0.007723 0.018586 -0.145476 0.070592 0.054743 -0.022334 0.170281 -0.285276 -0.147055 0.097264 0.070246 -0.045059 0.082702 -0.111334 -0.019934 -0.026073 0.046739 0.193832 0.255938 -0.147517 0.063954 -0.183298 -0.098780 -0.004947 0.125611 -0.033112 -0.025272 0.069055 0.005692 0.047568 0.234949 0.087096 -0.229792 0.152005 0.117581 -0.014825 0.012423 0.022490 -0.079743 -0.124713 0.052416 -0.138668 -0.046023 -0.059106 0.143263 -0.039931 0.094214 -0.086244 -0.055219 -0.036951 0.123357 -0.026089 -0.142381 0.190656 -0.099086 0.080512 -0.195228 -0.156941 0.045642 -0.043463 0.089435 0.096707 0.237609 0.026553 0.078769 -0.062400 0.047607 0.059699 -0.127680 -0.126868
ha 0.015677 0.019593 0.137726 0.038781 -0.032789 0.098004 -0.119673 0.007783 -0.136173 -0.032199 -0.105594 0.160625 0.048065 0.165019 0.020116 0.047636 -0.010662 -0.240592 -0.072404 0.062119 -0.173401 -0.032575 -0.019596 0.135977 0.226979 -0.055226 -0.032429 0.082090 -0.109837 -0.002099 0.008856 0.007237 -0.150127 0.065397 0.050204 -0.040050 0.165698 -0.278398 -0.156034 0.108256 0.074975 -0.037266 0.099498 -0.114505 -0.021053 -0.045398 0.048206 0.198487 0.255374 -0.155961 0.069227 -0.190224 -0.106985 -0.018030 0.132584 -0.041574 -0.012125 0.074908 0.008292 0.051062 0.248086 0.092330 -0.236119 0.148239 0.123677 -0.013157 0.019451 0.020941 -0.082819 -0.136997 0.053317 -0.131622 -0.046125 -0.064104 0.145109 -0.052845 0.084508 -0.093355 -0.060178 -0.038424 0.106400 -0.031194 -0.142835 0.174173 -0.097929 0.093089 -0.203516 -0.163878 0.029526 -0.050582 0.087946 0.096006 0.217646 0.018781 0.082890 -0.065574 0.046171 0.061983 -0.119628 -0.115575
gh 0.009353 0.019939 0.140473 0.039121 -0.025000 0.103118 -0.111381 -0.000218 -0.121808 -0.026417 -0.100471 0.157109 0.059544 0.161307 0.013113 0.050510 -0.012342 -0.253470 -0.082106 0.063334 -0.178135 -0.039609 -0.028515 0.128608 0.238017 -0.070913 -0.039980 0.068693 -0.117790 0.000935 0.002330 0.003694 -0.138232 0.059424 0.061671 -0.042223 0.162810 -0.295738 -0.151147 0.102564 0.070136 -0.043496 0.083803 -0.114740 -0.019753 -0.033317 0.045404 0.201081 0.255859 -0.160536 0.070210 -0.178246 -0.100463 -0.010512 0.134193 -0.042383 -0.012823 0.084229 0.024373 0.059211 0.241860 0.092973 -0.237427 0.169360 0.119777 -0.007588 0.026980 0.025610 -0.081959 -0.120889 0.038124 -0.140810 -0.040876 -0.053473 0.130713 -0.053010 0.087114 -0.087463 -0.063732 -0.034899 0.112562 -0.028587 -0.143132 0.184664 -0.096140 0.084000 -0.192906 -0.166864 0.046832 -0.060951 0.099496 0.096253 0.229684 0.012101 0.090682 -0.072269 0.049161 0.063146 -0.113706 -0.121256
ga 0.005934 0.033277 0.174522 0.046119 -0.038355 0.131888 -0.144782 0.000716 -0.154614 -0.039605 -0.108576 0.181442 0.065071 0.193779 0.013047 0.042469 -0.010324 -0.282838 -0.102481 0.084153 -0.220382 -0.060048 -0.015471 0.145873 0.273641 -0.063192 -0.040880 0.088910 -0.126887 -0.016058 0.011688 0.023353 -0.178205 0.084352 0.062059 -0.036889 0.189749 -0.331066 -0.184728 0.111202 0.085560 -0.053728 0.105870 -0.132530 -0.024772 -0.046048 0.043002 0.226951 0.305493 -0.168397 0.080388 -0.223364 -0.125486 -0.012581 0.148700 -0.045432 -0.017833 0.097399 0.024063 0.054582 0.288919 0.116124 -0.275465 0.188267 0.139474 -0.007833 0.026019 0.031185 -0.102966 -0.147906 0.058361 -0.158292 -0.057593 -0.063189 0.163955 -0.048382 0.093119 -0.109481 -0.057272 -0.042431 0.144445 -0.035692 -0.174912 0.221480 -0.116634 0.102724 -0.231882 -0.184274 0.052737 -0.068175 0.115215 0.121950 0.271735 0.023033 0.093614 -0.073047 0.053345 0.060668 -0.142977 -0.135863
mu 0.005244 0.019603 0.153884 0.038607 -0.019643 0.118742 -0.113723 0.009262 -0.137930 -0.036587 -0.104049 0.167537 0.063747 0.173628 0.021252 0.051909 -0.009462 -0.255340 -0.086471 0.066380 -0.199949 -0.040670 -0.020656 0.145582 0.245986 -0.058969 -0.028490 0.079063 -0.113203 -0.016114 0.016786 0.022286 -0.147136 0.074962 0.063506 -0.027978 0.176481 -0.305361 -0.171132 0.099531 0.071631 -0.034152 0.093912 -0.129107 -0.019985 -0.027786 0.053765 0.198780 0.271023 -0.152698 0.085396 -0.183429 -0.102006 -0.015572 0.142171 -0.039610 -0.025204 0.083350 0.014933 0.055053 0.251973 0.099375 -0.250258 0.168322 0.123675 0.001691 0.017959 0.023977 -0.102486 -0.140439 0.045081 -0.145305 -0.049616 -0.063929 0.148362 -0.059034 0.086358 -0.102901 -0.062268 -0.034767 0.110423 -0.026607 -0.156154 0.202044 -0.098030 0.085197 -0.213043 -0.170765 0.040777 -0.048307 0.099971 0.109370 0.237566 0.018230 0.088941 -0.074041 0.057182 0.054242 -0.125955 -0.130036
ja 0.000118 0.024973 0.150179 0.039458 -0.035709 0.102543 -0.134058 0.000143 -0.142781 -0.021519 -0.108435 0.172451 0.060279 0.170516 0.026993 0.037264 -0.019101 -0.260101 -0.092481 0.062869 -0.197692 -0.039688 -0.027144 0.148131 0.251918 -0.057014 -0.045658 0.088826 -0.110595 0.001639 0.007038 0.023611 -0.151627 0.060206 0.056361 -0.041885 0.186563 -0.303931 -0.167458 0.106443 0.071982 -0.047565 0.103002 -0.113672 -0.010901 -0.035493 0.040839 0.203184 0.268015 -0.164796 0.069155 -0.198002 -0.105892 -0.020469 0.132498 -0.029489 -0.024729 0.083023 0.015237 0.058686 0.262951 0.097856 -0.234984 0.165514 0.131327 -0.007716 0.011005 0.029705 -0.103337 -0.130792 0.038969 -0.150107 -0.045903 -0.053039 0.142218 -0.060072 0.084190 -0.089388 -0.054281 -0.047173 0.119072 -0.028584 -0.155129 0.201508 -0.099847 0.085378 -0.206125 -0.166310 0.031751 -0.055151 0.092297 0.097500 0.249627 0.026539 0.082966 -0.061972 0.050244 0.068403 -0.120530 -0.133823
jha 0.008428 0.032146 0.187146 0.046532 -0.038930 0.128358 -0.155408 -0.009764 -0.175079 -0.025284 -0.133884 0.213721 0.054103 0.213315 0.019614 0.053702 -0.023707 -0.305855 -0.104109 0.081482 -0.236548 -0.054467 -0.017810 0.164777 0.291743 -0.087357 -0.051002 0.084413 -0.143065 0.003764 -0.000684 0.015523 -0.178702 0.095787 0.061500 -0.050168 0.209528 -0.360521 -0.180234 0.117365 0.079568 -0.056823 0.125775 -0.157465 -0.023817 -0.054224 0.040378 0.252967 0.307964 -0.193515 0.103083 -0.231274 -0.136861 -0.016349 0.180251 -0.045741 -0.025463 0.098837 0.024900 0.057534 0.320054 0.136420 -0.299982 0.211933 0.159431 0.000230 0.021442 0.027532 -0.102964 -0.173568 0.065198 -0.163232 -0.053135 -0.077200 0.172974 -0.075324 0.117317 -0.120108 -0.081554 -0.039035 0.153670 -0.025413 -0.191711 0.240135 -0.118432 0.117967 -0.241482 -0.205370 0.041046 -0.054990 0.119191 0.122158 0.284677 0.030695 0.116215 -0.095196 0.058549 0.085572 -0.156120 -0.161034
cha 0.017567 0.014982 0.161707 0.047146 -0.023824 0.112812 -0.137238 -0.012302 -0.140524 -0.027864 -0.112818 0.181458 0.051816 0.198022 0.025426 0.043027 -0.018222 -0.270590 -0.088348 0.072127 -0.215256 -0.044162 -0.019390 0.153725 0.255265 -0.070342 -0.039283 0.096713 -0.121073 -0.011402 0.010268 0.007982 -0.176816 0.079978 0.074876 -0.029298 0.193559 -0.337599 -0.162242 0.110911 0.073903 -0.035537 0.111842 -0.125717 -0.025443 -0.028931 0.042527 0.218893 0.295696 -0.166789 0.076011 -0.214651 -0.116771 -0.003486 0.156927 -0.043068 -0.018287 0.093603 0.017642 0.055852 0.290231 0.113649 -0.270821 0.188367 0.139261 -0.005420 0.027179 0.036201 -0.103795 -0.152412 0.043824 -0.152141 -0.054108 -0.070511 0.160506 -0.059154 0.096158 -0.106303 -0.069065 -0.049840 0.142238 -0.036158 -0.168222 0.215162 -0.118089 0.103974 -0.217852 -0.176270 0.036624 -0.069507 0.114436 0.108028 0.268922 0.016611 0.090420 -0.068286 0.063599 0.075575 -0.129336 -0.146738
da 0.017497 0.027644 0.134595 0.035355 -0.018859 0.100865 -0.111075 -0.007336 -0.129841 -0.033060 -0.100779 0.162358 0.061037 0.168131 0.023327 0.036165 -0.003357 -0.237960 -0.078897 0.066762 -0.176607 -0.033118 -0.019325 0.134612 0.236551 -0.066313 -0.039242 0.076488 -0.113968 -0.011890 0.014215 0.023297 -0.143038 0.062240 0.052824 -0.027563 0.168240 -0.290831 -0.151399 0.097248 0.073483 -0.029204 0.099553 -0.110538 -0.017016 -0.036492 0.033594 0.197736 0.257897 -0.141347 0.069368 -0.184756 -0.090601 -0.011539 0.135123 -0.033396 -0.023100 0.078313 0.019755 0.047073 0.247943 0.090340 -0.228072 0.165779 0.125304 0.003227 0.013664 0.030104 -0.080045 -0.118200 0.035255 -0.130290 -0.035010 -0.052448 0.130178 -0.043204 0.076336 -0.091549 -0.052371 -0.037537 0.118010 -0.026660 -0.136528 0.184911 -0.093719 0.081355 -0.200336 -0.158143 0.037098 -0.049459 0.089441 0.094325 0.223199 0.015618 0.087729 -0.057891 0.041160 0.063567 -0.116603 -0.129543
g 0.004926 0.012475 0.119774 0.034791 -0.025173 0.101774 -0.113656 0.007179 -0.119866 -0.033182 -0.082878 0.150043 0.050158 0.137710 0.008427 0.035760 -0.012270 -0.207070 -0.077073 0.050733 -0.156172 -0.045680 -0.029353 0.119066 0.208029 -0.052824 -0.025147 0.075706 -0.099984 0.002488 0.011742 0.003355 -0.121085 0.050920 0.049990 -0.023244 0.146263 -0.259912 -0.138460 0.097633 0.056737 -0.030550 0.081218 -0.110798 -0.008618 -0.025466 0.038302 0.165954 0.220454 -0.135777 0.066594 -0.163203 -0.095179 -0.011305 0.115491 -0.026981 -0.012703 0.072623 0.002133 0.055463 0.209197 0.097479 -0.216064 0.143459 0.097633 -0.013776 0.019420 0.026237 -0.088352 -0.106738 0.038027 -0.126221 -0.044595 -0.053962 0.116329 -0.045957 0.070684 -0.091837 -0.053001 -0.029336 0.108473 -0.022686 -0.130196 0.171168 -0.084090 0.084500 -0.169587 -0.133622 0.043138 -0.047621 0.081696 0.083834 0.201234 0.024608 0.081036 -0.052505 0.034484 0.051952 -0.113690 -0.103701
si 0.003596 0.013426 0.124802 0.043823 -0.014411 0.082933 -0.104794 -0.007662 -0.113516 -0.023038 -0.088512 0.129699 0.045760 0.130489 0.010264 0.026210 -0.019415 -0.208939 -0.062719 0.059863 -0.165838 -0.045515 -0.021450 0.117985 0.205355 -0.046888 -0.033948 0.057736 -0.101388 -0.013278 -0.000437 0.019075 -0.128682 0.062417 0.047685 -0.027301 0.143437 -0.238592 -0.140743 0.077355 0.058557 -0.034667 0.079937 -0.093932 -0.010775 -0.035678 0.030949 0.169777 0.211542 -0.128385 0.064387 -0.151920 -0.081173 -0.011774 0.110817 -0.031905 -0.020234 0.060755 0.014564 0.037846 0.212917 0.088486 -0.188384 0.128979 0.106635 -0.012703 0.011285 0.014074 -0.082872 -0.118033 0.030288 -0.110333 -0.047395 -0.052652 0.121848 -0.032701 0.080902 -0.086341 -0.038198 -0.028471 0.092386 -0.020435 -0.113358 0.156502 -0.089676 0.081890 -0.160568 -0.124921 0.041146 -0.036199 0.079351 0.077836 0.199419 0.013217 0.072793 -0.052948 0.048395 0.045638 -0.107806 -0.101934
an -0.003442 0.020520 0.112574 0.033444 -0.022556 0.086806 -0.091705 0.004285 -0.096625 -0.031269 -0.072649 0.112049 0.048776 0.123639 0.011299 0.031480 -0.007461 -0.186596 -0.064998 0.046294 -0.143756 -0.027273 -0.023778 0.107142 0.173443 -0.045251 -0.034217 0.054041 -0.074999 -0.011083 -0.000061 0.010893 -0.116553 0.045563 0.039913 -0.022811 0.130118 -0.210479 -0.108930 0.066882 0.049975 -0.038202 0.059383 -0.091686 -0.008855 -0.019499 0.035588 0.147066 0.196671 -0.119042 0.062157 -0.130530 -0.083241 -0.009937 0.106459 -0.025714 -0.009569 0.066641 0.009847 0.029449 0.181343 0.067770 -0.173216 0.122050 0.087875 -0.010132 0.009327 0.021386 -0.076959 -0.103254 0.042310 -0.111112 -0.036137 -0.049946 0.095243 -0.038484 0.064401 -0.075965 -0.050354 -0.035151 0.090123 -0.009111 -0.111888 0.135029 -0.076629 0.062626 -0.154786 -0.125552 0.029204 -0.041953 0.067323 0.068617 0.181829 0.018660 0.062801 -0.054596 0.040422 0.050705 -0.099758 -0.084911
un 0.011551 0.013879 0.131781 0.029395 -0.032779 0.086093 -0.105232 0.002997 -0.114826 -0.033705 -0.092106 0.149126 0.056502 0.148092 0.007992 0.044315 -0.007406 -0.213231 -0.078404 0.065807 -0.163748 -0.047275 -0.025365 0.116506 0.198220 -0.058308 -0.032829 0.074668 -0.103194 -0.004691 0.016900 0.017922 -0.120207 0.051113 0.054486 -0.019412 0.145970 -0.251679 -0.135030 0.088364 0.057519 -0.024057 0.089836 -0.103657 -0.006457 -0.033369 0.042270 0.171760 0.223159 -0.140305 0.068320 -0.165780 -0.093817 -0.017638 0.127851 -0.038101 -0.012889 0.075972 0.002552 0.047169 0.217884 0.082881 -0.199700 0.139161 0.102624 -0.006304 0.021659 0.023065 -0.082041 -0.105518 0.046552 -0.112262 -0.035450 -0.054119 0.126400 -0.047714 0.070803 -0.082467 -0.039909 -0.031551 0.099410 -0.020496 -0.128727 0.166400 -0.089162 0.077570 -0.178060 -0.141368 0.043906 -0.048553 0.074436 0.083448 0.203791 0.010891 0.071989 -0.064396 0.040312 0.055451 -0.096181 -0.111851
kh 0.015990 0.017831 0.142374 0.042138 -0.020932 0.106844 -0.111791 -0.004492 -0.120776 -0.021396 -0.083289 0.162135 0.043819 0.156463 0.008814 0.043819 -0.002085 -0.239103 -0.074571 0.069929 -0.169038 -0.043777 -0.028721 0.136501 0.231777 -0.057708 -0.024545 0.061364 -0.099535 -0.017202 0.018490 0.016502 -0.130020 0.063322 0.042910 -0.039334 0.158183 -0.266978 -0.153462 0.103496 0.060777 -0.035593 0.081164 -0.110000 -0.014692 -0.044848 0.040919 0.188687 0.250714 -0.147207 0.077444 -0.167064 -0.086064 -0.014492 0.134316 -0.030881 -0.029032 0.069670 0.015933 0.041453 0.231772 0.098573 -0.227054 0.152661 0.106624 -0.005099 0.011929 0.032401 -0.094074 -0.113849 0.049573 -0.123147 -0.036152 -0.062450 0.138818 -0.046006 0.090556 -0.080064 -0.052367 -0.037947 0.101797 -0.028744 -0.135979 0.181946 -0.093493 0.082779 -0.193911 -0.146858 0.039521 -0.040274 0.094036 0.094356 0.227884 0.019237 0.090060 -0.064584 0.036621 0.053771 -0.122245 -0.126611
pr 0.015362 0.027077 0.115605 0.043905 -0.031573 0.085578 -0.096397 -0.004024 -0.103825 -0.016385 -0.092016 0.127651 0.053781 0.137274 0.015702 0.035432 -0.012707 -0.201677 -0.066847 0.047088 -0.153873 -0.033313 -0.025783 0.111705 0.205364 -0.050401 -0.038376 0.054228 -0.089075 -0.007323 0.017337 0.012104 -0.114388 0.049467 0.044839 -0.034674 0.145378 -0.248079 -0.131495 0.082487 0.053313 -0.040517 0.078216 -0.087986 -0.017889 -0.032904 0.028760 0.169316 0.213432 -0.118345 0.057706 -0.164490 -0.082848 -0.008044 0.122646 -0.020594 -0.011204 0.067793 0.008240 0.042098 0.200745 0.081328 -0.197714 0.125885 0.093943 -0.004224 0.011891 0.029822 -0.076775 -0.100904 0.042100 -0.125529 -0.044619 -0.045817 0.118038 -0.046138 0.073506 -0.070024 -0.049511 -0.040763 0.093664 -0.009216 -0.113829 0.163160 -0.074662 0.065788 -0.173349 -0.140740 0.022208 -0.036823 0.087954 0.075445 0.199944 0.019341 0.064215 -0.046785 0.045910 0.049863 -0.097994 -0.107655
sh 0.014553 0.024731 0.154000 0.034888 -0.034538 0.117012 -0.123517 -0.003341 -0.122620 -0.036169 -0.097492 0.157774 0.047915 0.172328 0.012379 0.034660 -0.008894 -0.236069 -0.089536 0.068203 -0.184694 -0.037194 -0.029869 0.144898 0.238847 -0.055872 -0.038803 0.083213 -0.104892 -0.015447 0.018819 0.019741 -0.150030 0.066324 0.051450 -0.031358 0.180084 -0.278477 -0.160782 0.111064 0.068868 -0.033912 0.096966 -0.115888 -0.015173 -0.037869 0.048913 0.191450 0.250900 -0.154258 0.068287 -0.186980 -0.108717 -0.021151 0.139181 -0.042315 -0.019848 0.083528 0.017536 0.049903 0.239298 0.106229 -0.224728 0.162794 0.110125 -0.015446 0.013778 0.016948 -0.083391 -0.135819 0.042804 -0.128184 -0.039757 -0.065223 0.135277 -0.049709 0.089445 -0.084173 -0.049088 -0.027882 0.106426 -0.026529 -0.140268 0.176565 -0.101223 0.080728 -0.191499 -0.165492 0.032170 -0.057381 0.087252 0.099097 0.229484 0.030994 0.080986 -0.064726 0.049508 0.060839 -0.115358 -0.131691
pu 0.007437 0.025952 0.125181 0.036797 -0.019074 0.094929 -0.095081 0.009324 -0.112810 -0.027527 -0.088585 0.124532 0.043543 0.128293 0.013219 0.034594 -0.008156 -0.190878 -0.060235 0.049827 -0.155660 -0.029769 -0.025476 0.111132 0.192214 -0.057525 -0.027651 0.058092 -0.095324 -0.002954 0.001497 0.014901 -0.126669 0.052665 0.051236 -0.032043 0.145144 -0.231479 -0.118811 0.076673 0.062446 -0.022038 0.081257 -0.100805 -0.005684 -0.037256 0.035623 0.158742 0.210516 -0.124163 0.051519 -0.151439 -0.073543 -0.011645 0.105602 -0.018047 -0.025839 0.063879 0.011537 0.041697 0.210725 0.078585 -0.180245 0.123387 0.102233 -0.002156 0.009700 0.014039 -0.069990 -0.104091 0.039554 -0.121682 -0.035471 -0.038623 0.103492 -0.041947 0.069772 -0.068793 -0.050597 -0.031034 0.099934 -0.027442 -0.110298 0.159367 -0.076055 0.074543 -0.159331 -0.122865 0.039957 -0.044352 0.076323 0.082880 0.183975 0.024637 0.076221 -0.051553 0.034192 0.044695 -0.099925 -0.099303
re 0.013558 0.023587 0.126954 0.044236 -0.017479 0.084520 -0.094811 -0.001505 -0.102087 -0.016191 -0.082784 0.132126 0.035378 0.137445 0.014646 0.033399 -0.010233 -0.204741 -0.064724 0.056913 -0.153919 -0.042430 -0.020134 0.104002 0.189505 -0.047981 -0.037593 0.066864 -0.093245 0.001514 0.012987 0.007186 -0.117576 0.044962 0.036585 -0.017555 0.143949 -0.240709 -0.130902 0.075603 0.055459 -0.035651 0.071516 -0.093223 -0.017323 -0.021538 0.037781 0.162518 0.201605 -0.118611 0.067276 -0.156600 -0.076682 -0.013804 0.114937 -0.028432 -0.011534 0.056092 0.008667 0.037453 0.195294 0.075587 -0.191078 0.122348 0.100637 -0.003684 0.020231 0.023872 -0.080345 -0.114809 0.036127 -0.112798 -0.042271 -0.042307 0.114628 -0.034816 0.062662 -0.069027 -0.051078 -0.031432 0.092827 -0.012325 -0.120139 0.146456 -0.083325 0.068004 -0.169071 -0.134900 0.025575 -0.042381 0.073754 0.078199 0.193518 0.012644 0.078147 -0.048171 0.030835 0.043257 -0.105112 -0.106327
tha 0.002524 0.006102 0.072376 0.023314 -0.011100 0.056999 -0.060386 -0.003083 -0.065141 -0.021451 -0.055475 0.097544 0.021624 0.101782 0.007757 0.024125 -0.005146 -0.135553 -0.055820 0.044010 -0.103220 -0.014383 -0.012814 0.078902 0.132630 -0.027182 -0.014368 0.051940 -0.061139 0.001090 0.002796 0.007002 -0.078363 0.028775 0.035859 -0.027895 0.098381 -0.164253 -0.088767 0.057170 0.039736 -0.023271 0.052021 -0.064141 -0.003507 -0.019159 0.025797 0.116371 0.155458 -0.093425 0.046353 -0.110850 -0.063048 -0.001247 0.067572 -0.012511 -0.006781 0.054137 0.011531 0.036796 0.132994 0.063899 -0.138738 0.087856 0.060276 -0.005148 0.015552 0.009215 -0.044916 -0.072618 0.028323 -0.069716 -0.027514 -0.036709 0.088699 -0.027009 0.050742 -0.056748 -0.037617 -0.027875 0.060861 -0.018939 -0.075884 0.096703 -0.053132 0.058750 -0.108264 -0.091413 0.012342 -0.023243 0.043134 0.059426 0.135329 0.005683 0.054053 -0.043451 0.020781 0.039279 -0.059041 -0.075682
ttha 0.009916 0.012462 0.029144 -0.000227 -0.008439 0.021048 -0.009550 0.006451 -0.022878 -0.009976 -0.007224 0.022135 0.005749 0.035918 0.004217 0.002376 -0.012200 -0.041397 -0.003688 0.009058 -0.026595 -0.011951 0.001848 0.027736 0.041006 -0.004833 -0.004732 0.010042 -0.013192 0.005650 0.008381 -0.003339 -0.020576 0.000737 0.010498 -0.003983 0.025421 -0.037345 -0.017814 0.007349 0.005833 -0.012088 0.023215 -0.018591 0.002458 0.000383 0.012141 0.023588 0.034587 -0.027033 0.008928 -0.025491 -0.023351 -0.004858 0.016817 -0.011675 -0.010218 0.006714 0.003384 0.006786 0.039349 0.015715 -0.033080 0.033533 0.019985 0.002059 0.007610 0.007564 -0.022278 -0.011819 0.000739 -0.024528 -0.004433 -0.011409 0.017604 0.000214 0.005507 -0.020211 0.000697 -0.001531 0.010768 0.001397 -0.013756 0.022573 -0.017794 0.013526 -0.040271 -0.031767 -0.000247 -0.014822 0.013405 0.015330 0.032874 -0.000612 0.008110 -0.004818 0.001665 0.017623 -0.019103 -0.014498
tta 0.009735 0.014493 0.115838 0.029486 -0.028846 0.079487 -0.098392 -0.007374 -0.110907 -0.013979 -0.077073 0.125568 0.051327 0.123312 0.012472 0.040389 -0.007485 -0.193727 -0.069312 0.041267 -0.154667 -0.040872 -0.011386 0.109009 0.184299 -0.042994 -0.035444 0.053860 -0.087147 0.001968 0.010254 0.018380 -0.120438 0.058839 0.034894 -0.030697 0.134327 -0.235431 -0.114808 0.086706 0.056196 -0.033623 0.064770 -0.088370 -0.010717 -0.022877 0.034735 0.144616 0.193920 -0.113196 0.051270 -0.136784 -0.087277 -0.005325 0.115451 -0.028373 -0.025880 0.068988 0.004544 0.041124 0.203669 0.082019 -0.191341 0.133074 0.086656 0.000417 0.016393 0.014466 -0.072593 -0.110500 0.045929 -0.113881 -0.040042 -0.046415 0.112317 -0.038942 0.067564 -0.071347 -0.037194 -0.031527 0.098334 -0.011906 -0.102606 0.154951 -0.071386 0.063609 -0.151726 -0.118905 0.026146 -0.037260 0.068954 0.077783 0.188782 0.010544 0.064608 -0.045472 0.035626 0.055064 -0.104846 -0.094323
nna 0.008379 0.014730 0.029727 0.020516 -0.009211 0.024174 -0.033216 0.002777 -0.029644 -0.007940 -0.033658 0.050858 0.008002 0.033374 0.006594 0.009146 -0.001079 -0.054165 -0.028838 0.012024 -0.046896 -0.005257 -0.003445 0.031721 0.062162 -0.006266 -0.009762 0.026561 -0.021836 -0.005865 -0.002631 0.009088 -0.043079 0.013636 0.008535 -0.006072 0.039171 -0.069652 -0.030429 0.032246 0.026769 -0.019242 0.022721 -0.034915 0.004593 -0.005161 0.006832 0.050368 0.066912 -0.038631 0.018223 -0.055945 -0.026598 -0.006280 0.040545 -0.001297 -0.000546 0.010383 0.010319 0.010880 0.060993 0.033859 -0.051274 0.031952 0.027472 0.003676 0.005308 0.001044 -0.022275 -0.025815 0.006192 -0.030009 -0.006937 -0.007190 0.030931 -0.018511 0.022674 -0.022858 -0.016201 -0.003847 0.035626 -0.010648 -0.030061 0.041857 -0.026666 0.012754 -0.053983 -0.030647 0.008608 -0.008959 0.015914 0.027436 0.056217 0.010455 0.030536 -0.016089 0.003788 0.014322 -0.038189 -0.032813
va -0.004003 0.016055 0.072026 0.016616 -0.024024 0.064009 -0.056113 0.006402 -0.076289 -0.018302 -0.042031 0.086690 0.020966 0.078458 0.004847 0.032076 -0.013176 -0.119757 -0.039409 0.041875 -0.090870 -0.026066 -0.004963 0.064306 0.119832 -0.038408 -0.026613 0.031273 -0.063033 -0.011517 0.003012 -0.001194 -0.085140 0.044205 0.020220 -0.025703 0.079929 -0.158121 -0.080795 0.059684 0.041908 -0.018299 0.040381 -0.055074 -0.016661 -0.016121 0.019983 0.109446 0.130163 -0.076308 0.037974 -0.096684 -0.044295 -0.002301 0.068937 -0.018922 -0.007246 0.037892 0.000143 0.026342 0.120231 0.044823 -0.122996 0.090105 0.067590 -0.007861 0.007450 0.005563 -0.042297 -0.073593 0.030693 -0.065303 -0.020291 -0.034643 0.081883 -0.022256 0.048088 -0.041779 -0.022002 -0.027929 0.068692 -0.006068 -0.080411 0.093903 -0.046507 0.039845 -0.106127 -0.078676 0.023230 -0.018687 0.041380 0.047497 0.131607 0.013039 0.040154 -0.038655 0.020895 0.031741 -0.067833 -0.063544
dha 0.002082 0.010183 0.040104 0.016686 -0.000340 0.027536 -0.042436 0.003642 -0.039593 -0.005794 -0.031121 0.056555 0.019720 0.044750 0.010775 0.012889 -0.013207 -0.081372 -0.028065 0.012644 -0.050488 -0.019576 -0.010372 0.042797 0.083678 -0.015479 -0.006476 0.019416 -0.028561 0.004123 0.002418 0.005741 -0.056792 0.026679 0.027151 -0.011295 0.056262 -0.093798 -0.058966 0.035290 0.027385 -0.003916 0.038719 -0.037693 0.004440 -0.011055 0.016207 0.065330 0.093429 -0.044695 0.016586 -0.068839 -0.034732 -0.003902 0.047419 -0.011540 -0.006919 0.033878 0.001198 0.016546 0.081624 0.031339 -0.066139 0.061777 0.038801 -0.002686 0.007371 0.001473 -0.030985 -0.048082 0.007921 -0.053047 -0.013188 -0.029166 0.048251 -0.017576 0.025536 -0.024874 -0.017689 -0.007699 0.042246 -0.016595 -0.052162 0.062523 -0.022434 0.021400 -0.073090 -0.042411 0.021863 -0.023389 0.028826 0.034531 0.069897 0.003453 0.026061 -0.018589 0.011150 0.017284 -0.043454 -0.035910
